digraph Tree {
node [shape=box, style="filled, rounded", color="black", fontname="helvetica"] ;
edge [fontname="helvetica"] ;
0 [label="age <= 49.0\ngini = 0.492\nsamples = 245\nvalue = [165, 34, 46]\nclass = Biryani", fillcolor="#efb489"] ;
1 [label="age <= 45.5\ngini = 0.24\nsamples = 15\nvalue = [13, 1, 1]\nclass = Biryani", fillcolor="#e99355"] ;
0 -> 1 [labeldistance=2.5, labelangle=45, headlabel="True"] ;
2 [label="age <= 41.5\ngini = 0.406\nsamples = 8\nvalue = [6, 1, 1]\nclass = Biryani", fillcolor="#eca572"] ;
1 -> 2 ;
3 [label="gini = 0.0\nsamples = 5\nvalue = [5, 0, 0]\nclass = Biryani", fillcolor="#e58139"] ;
2 -> 3 ;
4 [label="age <= 44.0\ngini = 0.667\nsamples = 3\nvalue = [1, 1, 1]\nclass = Biryani", fillcolor="#ffffff"] ;
2 -> 4 ;
5 [label="gini = 0.0\nsamples = 1\nvalue = [0, 0, 1]\nclass = Samosa", fillcolor="#8139e5"] ;
4 -> 5 ;
6 [label="gini = 0.5\nsamples = 2\nvalue = [1, 1, 0]\nclass = Biryani", fillcolor="#ffffff"] ;
4 -> 6 ;
7 [label="gini = 0.0\nsamples = 7\nvalue = [7, 0, 0]\nclass = Biryani", fillcolor="#e58139"] ;
1 -> 7 ;
8 [label="age <= 89.1\ngini = 0.504\nsamples = 230\nvalue = [152, 33, 45]\nclass = Biryani", fillcolor="#f0b68c"] ;
0 -> 8 [labeldistance=2.5, labelangle=-45, headlabel="False"] ;
9 [label="age <= 87.75\ngini = 0.522\nsamples = 207\nvalue = [133, 32, 42]\nclass = Biryani", fillcolor="#f1ba92"] ;
8 -> 9 ;
10 [label="age <= 64.15\ngini = 0.514\nsamples = 201\nvalue = [131, 32, 38]\nclass = Biryani", fillcolor="#f0b78e"] ;
9 -> 10 ;
11 [label="age <= 63.2\ngini = 0.549\nsamples = 74\nvalue = [45, 11, 18]\nclass = Biryani", fillcolor="#f2c2a0"] ;
10 -> 11 ;
12 [label="age <= 60.75\ngini = 0.504\nsamples = 68\nvalue = [45, 10, 13]\nclass = Biryani", fillcolor="#f0b68c"] ;
11 -> 12 ;
13 [label="age <= 50.2\ngini = 0.54\nsamples = 53\nvalue = [33, 9, 11]\nclass = Biryani", fillcolor="#f1bd97"] ;
12 -> 13 ;
14 [label="gini = 0.594\nsamples = 8\nvalue = [4, 1, 3]\nclass = Biryani", fillcolor="#fae6d7"] ;
13 -> 14 ;
15 [label="age <= 52.5\ngini = 0.521\nsamples = 45\nvalue = [29, 8, 8]\nclass = Biryani", fillcolor="#f0b78f"] ;
13 -> 15 ;
16 [label="age <= 50.95\ngini = 0.278\nsamples = 6\nvalue = [5, 0, 1]\nclass = Biryani", fillcolor="#ea9a61"] ;
15 -> 16 ;
17 [label="gini = 0.0\nsamples = 2\nvalue = [2, 0, 0]\nclass = Biryani", fillcolor="#e58139"] ;
16 -> 17 ;
18 [label="age <= 51.5\ngini = 0.375\nsamples = 4\nvalue = [3, 0, 1]\nclass = Biryani", fillcolor="#eeab7b"] ;
16 -> 18 ;
19 [label="gini = 0.5\nsamples = 2\nvalue = [1, 0, 1]\nclass = Biryani", fillcolor="#ffffff"] ;
18 -> 19 ;
20 [label="gini = 0.0\nsamples = 2\nvalue = [2, 0, 0]\nclass = Biryani", fillcolor="#e58139"] ;
18 -> 20 ;
21 [label="age <= 54.5\ngini = 0.547\nsamples = 39\nvalue = [24, 8, 7]\nclass = Biryani", fillcolor="#f2be99"] ;
15 -> 21 ;
22 [label="age <= 53.5\ngini = 0.612\nsamples = 7\nvalue = [3, 3, 1]\nclass = Biryani", fillcolor="#ffffff"] ;
21 -> 22 ;
23 [label="gini = 0.625\nsamples = 4\nvalue = [2, 1, 1]\nclass = Biryani", fillcolor="#f6d5bd"] ;
22 -> 23 ;
24 [label="gini = 0.444\nsamples = 3\nvalue = [1, 2, 0]\nclass = Pakora", fillcolor="#9cf2c0"] ;
22 -> 24 ;
25 [label="age <= 58.5\ngini = 0.51\nsamples = 32\nvalue = [21, 5, 6]\nclass = Biryani", fillcolor="#f0b68d"] ;
21 -> 25 ;
26 [label="age <= 55.8\ngini = 0.443\nsamples = 17\nvalue = [12, 1, 4]\nclass = Biryani", fillcolor="#efb185"] ;
25 -> 26 ;
27 [label="age <= 55.1\ngini = 0.37\nsamples = 9\nvalue = [7, 1, 1]\nclass = Biryani", fillcolor="#eca06a"] ;
26 -> 27 ;
28 [label="gini = 0.5\nsamples = 6\nvalue = [4, 1, 1]\nclass = Biryani", fillcolor="#efb388"] ;
27 -> 28 ;
29 [label="gini = 0.0\nsamples = 3\nvalue = [3, 0, 0]\nclass = Biryani", fillcolor="#e58139"] ;
27 -> 29 ;
30 [label="age <= 56.5\ngini = 0.469\nsamples = 8\nvalue = [5, 0, 3]\nclass = Biryani", fillcolor="#f5cdb0"] ;
26 -> 30 ;
31 [label="gini = 0.5\nsamples = 2\nvalue = [1, 0, 1]\nclass = Biryani", fillcolor="#ffffff"] ;
30 -> 31 ;
32 [label="age <= 57.5\ngini = 0.444\nsamples = 6\nvalue = [4, 0, 2]\nclass = Biryani", fillcolor="#f2c09c"] ;
30 -> 32 ;
33 [label="gini = 0.444\nsamples = 3\nvalue = [2, 0, 1]\nclass = Biryani", fillcolor="#f2c09c"] ;
32 -> 33 ;
34 [label="gini = 0.444\nsamples = 3\nvalue = [2, 0, 1]\nclass = Biryani", fillcolor="#f2c09c"] ;
32 -> 34 ;
35 [label="age <= 59.5\ngini = 0.551\nsamples = 15\nvalue = [9, 4, 2]\nclass = Biryani", fillcolor="#f3c6a5"] ;
25 -> 35 ;
36 [label="gini = 0.375\nsamples = 4\nvalue = [3, 1, 0]\nclass = Biryani", fillcolor="#eeab7b"] ;
35 -> 36 ;
37 [label="gini = 0.595\nsamples = 11\nvalue = [6, 3, 2]\nclass = Biryani", fillcolor="#f5d0b5"] ;
35 -> 37 ;
38 [label="age <= 62.5\ngini = 0.338\nsamples = 15\nvalue = [12, 1, 2]\nclass = Biryani", fillcolor="#eb9e67"] ;
12 -> 38 ;
39 [label="age <= 61.75\ngini = 0.292\nsamples = 12\nvalue = [10, 1, 1]\nclass = Biryani", fillcolor="#ea985d"] ;
38 -> 39 ;
40 [label="gini = 0.0\nsamples = 1\nvalue = [1, 0, 0]\nclass = Biryani", fillcolor="#e58139"] ;
39 -> 40 ;
41 [label="gini = 0.314\nsamples = 11\nvalue = [9, 1, 1]\nclass = Biryani", fillcolor="#ea9a61"] ;
39 -> 41 ;
42 [label="gini = 0.444\nsamples = 3\nvalue = [2, 0, 1]\nclass = Biryani", fillcolor="#f2c09c"] ;
38 -> 42 ;
43 [label="age <= 63.7\ngini = 0.278\nsamples = 6\nvalue = [0, 1, 5]\nclass = Samosa", fillcolor="#9a61ea"] ;
11 -> 43 ;
44 [label="gini = 0.0\nsamples = 1\nvalue = [0, 0, 1]\nclass = Samosa", fillcolor="#8139e5"] ;
43 -> 44 ;
45 [label="gini = 0.32\nsamples = 5\nvalue = [0, 1, 4]\nclass = Samosa", fillcolor="#a06aec"] ;
43 -> 45 ;
46 [label="age <= 70.5\ngini = 0.489\nsamples = 127\nvalue = [86, 21, 20]\nclass = Biryani", fillcolor="#efb286"] ;
10 -> 46 ;
47 [label="age <= 68.25\ngini = 0.399\nsamples = 41\nvalue = [31, 5, 5]\nclass = Biryani", fillcolor="#eca470"] ;
46 -> 47 ;
48 [label="age <= 67.5\ngini = 0.476\nsamples = 29\nvalue = [20, 5, 4]\nclass = Biryani", fillcolor="#efb083"] ;
47 -> 48 ;
49 [label="age <= 65.5\ngini = 0.37\nsamples = 18\nvalue = [14, 2, 2]\nclass = Biryani", fillcolor="#eca06a"] ;
48 -> 49 ;
50 [label="age <= 64.65\ngini = 0.5\nsamples = 12\nvalue = [8, 2, 2]\nclass = Biryani", fillcolor="#efb388"] ;
49 -> 50 ;
51 [label="gini = 0.0\nsamples = 1\nvalue = [1, 0, 0]\nclass = Biryani", fillcolor="#e58139"] ;
50 -> 51 ;
52 [label="gini = 0.529\nsamples = 11\nvalue = [7, 2, 2]\nclass = Biryani", fillcolor="#f1b991"] ;
50 -> 52 ;
53 [label="gini = 0.0\nsamples = 6\nvalue = [6, 0, 0]\nclass = Biryani", fillcolor="#e58139"] ;
49 -> 53 ;
54 [label="gini = 0.595\nsamples = 11\nvalue = [6, 3, 2]\nclass = Biryani", fillcolor="#f5d0b5"] ;
48 -> 54 ;
55 [label="age <= 69.25\ngini = 0.153\nsamples = 12\nvalue = [11, 0, 1]\nclass = Biryani", fillcolor="#e78c4b"] ;
47 -> 55 ;
56 [label="gini = 0.0\nsamples = 1\nvalue = [1, 0, 0]\nclass = Biryani", fillcolor="#e58139"] ;
55 -> 56 ;
57 [label="gini = 0.165\nsamples = 11\nvalue = [10, 0, 1]\nclass = Biryani", fillcolor="#e88e4d"] ;
55 -> 57 ;
58 [label="age <= 73.9\ngini = 0.526\nsamples = 86\nvalue = [55, 16, 15]\nclass = Biryani", fillcolor="#f1b991"] ;
46 -> 58 ;
59 [label="age <= 72.55\ngini = 0.64\nsamples = 10\nvalue = [4, 4, 2]\nclass = Biryani", fillcolor="#ffffff"] ;
58 -> 59 ;
60 [label="age <= 71.25\ngini = 0.571\nsamples = 7\nvalue = [4, 2, 1]\nclass = Biryani", fillcolor="#f5cdb0"] ;
59 -> 60 ;
61 [label="gini = 0.667\nsamples = 3\nvalue = [1, 1, 1]\nclass = Biryani", fillcolor="#ffffff"] ;
60 -> 61 ;
62 [label="age <= 72.1\ngini = 0.375\nsamples = 4\nvalue = [3, 1, 0]\nclass = Biryani", fillcolor="#eeab7b"] ;
60 -> 62 ;
63 [label="gini = 0.0\nsamples = 2\nvalue = [2, 0, 0]\nclass = Biryani", fillcolor="#e58139"] ;
62 -> 63 ;
64 [label="age <= 72.35\ngini = 0.5\nsamples = 2\nvalue = [1, 1, 0]\nclass = Biryani", fillcolor="#ffffff"] ;
62 -> 64 ;
65 [label="gini = 0.0\nsamples = 1\nvalue = [0, 1, 0]\nclass = Pakora", fillcolor="#39e581"] ;
64 -> 65 ;
66 [label="gini = 0.0\nsamples = 1\nvalue = [1, 0, 0]\nclass = Biryani", fillcolor="#e58139"] ;
64 -> 66 ;
67 [label="age <= 72.8\ngini = 0.444\nsamples = 3\nvalue = [0, 2, 1]\nclass = Pakora", fillcolor="#9cf2c0"] ;
59 -> 67 ;
68 [label="gini = 0.0\nsamples = 1\nvalue = [0, 1, 0]\nclass = Pakora", fillcolor="#39e581"] ;
67 -> 68 ;
69 [label="age <= 73.4\ngini = 0.5\nsamples = 2\nvalue = [0, 1, 1]\nclass = Pakora", fillcolor="#ffffff"] ;
67 -> 69 ;
70 [label="gini = 0.0\nsamples = 1\nvalue = [0, 0, 1]\nclass = Samosa", fillcolor="#8139e5"] ;
69 -> 70 ;
71 [label="gini = 0.0\nsamples = 1\nvalue = [0, 1, 0]\nclass = Pakora", fillcolor="#39e581"] ;
69 -> 71 ;
72 [label="age <= 74.5\ngini = 0.495\nsamples = 76\nvalue = [51, 12, 13]\nclass = Biryani", fillcolor="#efb388"] ;
58 -> 72 ;
73 [label="gini = 0.0\nsamples = 7\nvalue = [7, 0, 0]\nclass = Biryani", fillcolor="#e58139"] ;
72 -> 73 ;
74 [label="age <= 86.5\ngini = 0.528\nsamples = 69\nvalue = [44, 12, 13]\nclass = Biryani", fillcolor="#f1b991"] ;
72 -> 74 ;
75 [label="age <= 85.5\ngini = 0.537\nsamples = 67\nvalue = [42, 12, 13]\nclass = Biryani", fillcolor="#f1bb95"] ;
74 -> 75 ;
76 [label="age <= 84.25\ngini = 0.521\nsamples = 59\nvalue = [38, 9, 12]\nclass = Biryani", fillcolor="#f1b991"] ;
75 -> 76 ;
77 [label="age <= 81.75\ngini = 0.537\nsamples = 51\nvalue = [32, 9, 10]\nclass = Biryani", fillcolor="#f1bb95"] ;
76 -> 77 ;
78 [label="age <= 79.5\ngini = 0.508\nsamples = 41\nvalue = [27, 7, 7]\nclass = Biryani", fillcolor="#f0b58b"] ;
77 -> 78 ;
79 [label="age <= 77.5\ngini = 0.56\nsamples = 30\nvalue = [18, 6, 6]\nclass = Biryani", fillcolor="#f2c09c"] ;
78 -> 79 ;
80 [label="age <= 76.5\ngini = 0.482\nsamples = 19\nvalue = [13, 3, 3]\nclass = Biryani", fillcolor="#efb083"] ;
79 -> 80 ;
81 [label="age <= 75.5\ngini = 0.539\nsamples = 16\nvalue = [10, 3, 3]\nclass = Biryani", fillcolor="#f1bb94"] ;
80 -> 81 ;
82 [label="gini = 0.56\nsamples = 10\nvalue = [6, 2, 2]\nclass = Biryani", fillcolor="#f2c09c"] ;
81 -> 82 ;
83 [label="gini = 0.5\nsamples = 6\nvalue = [4, 1, 1]\nclass = Biryani", fillcolor="#efb388"] ;
81 -> 83 ;
84 [label="gini = 0.0\nsamples = 3\nvalue = [3, 0, 0]\nclass = Biryani", fillcolor="#e58139"] ;
80 -> 84 ;
85 [label="age <= 78.5\ngini = 0.645\nsamples = 11\nvalue = [5, 3, 3]\nclass = Biryani", fillcolor="#f8e0ce"] ;
79 -> 85 ;
86 [label="gini = 0.625\nsamples = 8\nvalue = [4, 2, 2]\nclass = Biryani", fillcolor="#f6d5bd"] ;
85 -> 86 ;
87 [label="gini = 0.667\nsamples = 3\nvalue = [1, 1, 1]\nclass = Biryani", fillcolor="#ffffff"] ;
85 -> 87 ;
88 [label="age <= 80.5\ngini = 0.314\nsamples = 11\nvalue = [9, 1, 1]\nclass = Biryani", fillcolor="#ea9a61"] ;
78 -> 88 ;
89 [label="gini = 0.37\nsamples = 9\nvalue = [7, 1, 1]\nclass = Biryani", fillcolor="#eca06a"] ;
88 -> 89 ;
90 [label="gini = 0.0\nsamples = 2\nvalue = [2, 0, 0]\nclass = Biryani", fillcolor="#e58139"] ;
88 -> 90 ;
91 [label="age <= 82.86\ngini = 0.62\nsamples = 10\nvalue = [5, 2, 3]\nclass = Biryani", fillcolor="#f8dbc6"] ;
77 -> 91 ;
92 [label="age <= 82.36\ngini = 0.611\nsamples = 6\nvalue = [2, 1, 3]\nclass = Samosa", fillcolor="#e0cef8"] ;
91 -> 92 ;
93 [label="gini = 0.64\nsamples = 5\nvalue = [2, 1, 2]\nclass = Biryani", fillcolor="#ffffff"] ;
92 -> 93 ;
94 [label="gini = 0.0\nsamples = 1\nvalue = [0, 0, 1]\nclass = Samosa", fillcolor="#8139e5"] ;
92 -> 94 ;
95 [label="age <= 83.5\ngini = 0.375\nsamples = 4\nvalue = [3, 1, 0]\nclass = Biryani", fillcolor="#eeab7b"] ;
91 -> 95 ;
96 [label="gini = 0.0\nsamples = 1\nvalue = [1, 0, 0]\nclass = Biryani", fillcolor="#e58139"] ;
95 -> 96 ;
97 [label="gini = 0.444\nsamples = 3\nvalue = [2, 1, 0]\nclass = Biryani", fillcolor="#f2c09c"] ;
95 -> 97 ;
98 [label="age <= 84.75\ngini = 0.375\nsamples = 8\nvalue = [6, 0, 2]\nclass = Biryani", fillcolor="#eeab7b"] ;
76 -> 98 ;
99 [label="gini = 0.0\nsamples = 1\nvalue = [1, 0, 0]\nclass = Biryani", fillcolor="#e58139"] ;
98 -> 99 ;
100 [label="gini = 0.408\nsamples = 7\nvalue = [5, 0, 2]\nclass = Biryani", fillcolor="#efb388"] ;
98 -> 100 ;
101 [label="gini = 0.594\nsamples = 8\nvalue = [4, 3, 1]\nclass = Biryani", fillcolor="#fae6d7"] ;
75 -> 101 ;
102 [label="gini = 0.0\nsamples = 2\nvalue = [2, 0, 0]\nclass = Biryani", fillcolor="#e58139"] ;
74 -> 102 ;
103 [label="age <= 88.1\ngini = 0.444\nsamples = 6\nvalue = [2, 0, 4]\nclass = Samosa", fillcolor="#c09cf2"] ;
9 -> 103 ;
104 [label="gini = 0.48\nsamples = 5\nvalue = [2, 0, 3]\nclass = Samosa", fillcolor="#d5bdf6"] ;
103 -> 104 ;
105 [label="gini = 0.0\nsamples = 1\nvalue = [0, 0, 1]\nclass = Samosa", fillcolor="#8139e5"] ;
103 -> 105 ;
106 [label="age <= 116.15\ngini = 0.299\nsamples = 23\nvalue = [19, 1, 3]\nclass = Biryani", fillcolor="#ea9a61"] ;
8 -> 106 ;
107 [label="age <= 90.5\ngini = 0.194\nsamples = 19\nvalue = [17, 1, 1]\nclass = Biryani", fillcolor="#e88f4f"] ;
106 -> 107 ;
108 [label="gini = 0.32\nsamples = 5\nvalue = [4, 0, 1]\nclass = Biryani", fillcolor="#eca06a"] ;
107 -> 108 ;
109 [label="age <= 97.5\ngini = 0.133\nsamples = 14\nvalue = [13, 1, 0]\nclass = Biryani", fillcolor="#e78b48"] ;
107 -> 109 ;
110 [label="age <= 96.5\ngini = 0.245\nsamples = 7\nvalue = [6, 1, 0]\nclass = Biryani", fillcolor="#e9965a"] ;
109 -> 110 ;
111 [label="gini = 0.0\nsamples = 6\nvalue = [6, 0, 0]\nclass = Biryani", fillcolor="#e58139"] ;
110 -> 111 ;
112 [label="gini = 0.0\nsamples = 1\nvalue = [0, 1, 0]\nclass = Pakora", fillcolor="#39e581"] ;
110 -> 112 ;
113 [label="gini = 0.0\nsamples = 7\nvalue = [7, 0, 0]\nclass = Biryani", fillcolor="#e58139"] ;
109 -> 113 ;
114 [label="age <= 132.5\ngini = 0.5\nsamples = 4\nvalue = [2, 0, 2]\nclass = Biryani", fillcolor="#ffffff"] ;
106 -> 114 ;
115 [label="gini = 0.0\nsamples = 1\nvalue = [0, 0, 1]\nclass = Samosa", fillcolor="#8139e5"] ;
114 -> 115 ;
116 [label="age <= 148.0\ngini = 0.444\nsamples = 3\nvalue = [2, 0, 1]\nclass = Biryani", fillcolor="#f2c09c"] ;
114 -> 116 ;
117 [label="gini = 0.0\nsamples = 1\nvalue = [1, 0, 0]\nclass = Biryani", fillcolor="#e58139"] ;
116 -> 117 ;
118 [label="age <= 170.0\ngini = 0.5\nsamples = 2\nvalue = [1, 0, 1]\nclass = Biryani", fillcolor="#ffffff"] ;
116 -> 118 ;
119 [label="gini = 0.0\nsamples = 1\nvalue = [0, 0, 1]\nclass = Samosa", fillcolor="#8139e5"] ;
118 -> 119 ;
120 [label="gini = 0.0\nsamples = 1\nvalue = [1, 0, 0]\nclass = Biryani", fillcolor="#e58139"] ;
118 -> 120 ;
}